{"weights": [[[-1.10378, 0.22467, -1.82838, 0.10817, -0.42369, 0.11308, 0.77659], [-2.50565, 0.15838, 0.16017, 0.15914, -1.18641, -1.48854, 1.32431], [0.08127, -0.02467, 1.15037, 1.22771, 1.5483, 1.74914, -0.46941], [-0.84178, 0.09609, -1.42866, 1.32496, -0.00045, 0.98186, -0.88229], [0.0218, -0.89515, 0.48878, 1.26544, 0.13864, 2.72817, -2.10545], [-0.92258, -0.751, -1.29965, -0.34355, -0.36018, 0.67345, 1.01823], [0.0254, -0.55699, -1.83609, 0.43622, 0.23224, 0.41983, 0.30927], [-0.9503, 0.47371, -0.14764, 0.41414, 1.55034, 1.48945, -1.5863], [0.75692, -3.73573, 0.96389, 0.32418, -1.2384, -1.16134, 0.96094], [-2.45202, -0.26964, 0.03171, -0.34155, -0.43392, -2.66398, 1.75632], [-1.29351, -1.04563, 0.406, -0.08953, -0.46578, -0.65922, 0.669], [0.76877, -1.34562, -0.12773, -0.15562, 2.57964, -0.13926, -1.87861], [0.77181, -1.18863, -3.29461, 1.05292, -0.34089, -1.93317, 1.62796], [0.65351, 1.08742, -1.12919, 0.30982, 0.27663, -0.95403, -0.30568], [-0.01531, -0.0422, -1.81877, -0.76345, 0.15034, -0.16747, 1.75563], [0.28854, 0.15487, -2.33421, 0.92082, -0.00382, -1.0428, 0.81497]], [[0.13566, 0.80133, -1.6809, -0.29624, -5.76548, 0.55643, 0.14793, -0.75077, 1.05219, 1.54403, -4.65222, -2.22132, 0.98528, 0.07572, 1.49448, 0.83368], [0.04428, 0.90798, 0.78462, 0.57299, -1.31975, -0.75718, -1.14146, -0.10693, -0.80165, -0.06946, 0.12694, 0.38245, -0.61656, 0.37373, 0.23863, 0.19966], [0.92694, -0.42953, -0.54291, 0.83409, 1.30734, 2.24286, 1.07883, 0.78062, -0.68678, -1.0028, 1.40953, 0.24292, 0.75313, -0.49623, 1.47059, 0.24569], [-2.71723, 0.82026, 0.07158, -2.4306, -1.94715, -1.9426, -1.15609, -0.91568, 0.80376, 2.16908, -0.27172, 0.46302, -0.98172, 0.41697, -1.75337, -2.24992]], [[3.08516, 0.43566, -2.7009, 3.798]]], "biases": [[[1.15205], [0.20429], [-0.19364], [0.9536], [0.06778], [0.87681], [0.88946], [-0.53536], [0.41552], [-0.30956], [1.41807], [0.66722], [0.57463], [-0.57644], [0.4419], [0.2169]], [[0.10763], [0.58483], [0.40318], [1.11466]], [[-0.1165]]]}